-2.099041044712066650e-01 1.673797070980072021e-01 1.096855401992797852e-01 -2.927308082580566406e-01 -1.496039479970932007e-01 1.764260828495025635e-01 1.114375591278076172e-01 -9.815660864114761353e-02 1.183161288499832153e-01 1.534225046634674072e-01 2.394888401031494141e-01 -5.467432737350463867e-02 -1.105613037943840027e-01 6.907145725563168526e-04 -8.997729420661926270e-02 -1.084988638758659363e-01 3.374050185084342957e-02 2.440002262592315674e-01 2.236363589763641357e-01 2.788006961345672607e-01 1.770019829273223877e-01 3.247177302837371826e-01 -2.627775669097900391e-01 -3.977695107460021973e-02 1.865387856960296631e-01 4.765507578849792480e-02 3.535302728414535522e-02 2.861677110195159912e-01 1.262439340353012085e-01 -2.890911102294921875e-01
2.056503593921661377e-01 -1.680980920791625977e-01 -2.419899255037307739e-01 -1.150989234447479248e-01 3.701364994049072266e-02 -2.860627174377441406e-01 9.743756055831909180e-02 2.233096063137054443e-01 -3.940269351005554199e-03 -5.841967463493347168e-02 -2.083445936441421509e-01 2.671748697757720947e-01 4.356846213340759277e-02 3.267182111740112305e-01 7.790236920118331909e-02 3.014182671904563904e-02 -8.068742230534553528e-03 5.771824717521667480e-02 -3.074515163898468018e-01 -1.607473343610763550e-01 -2.088057994842529297e-02 -1.594413220882415771e-01 2.060530483722686768e-01 -3.236396014690399170e-01 -6.652593612670898438e-03 1.725815534591674805e-01 2.323436737060546875e-01 2.370318472385406494e-01 1.481277048587799072e-01 1.614643633365631104e-01
2.396801412105560303e-01 1.972713768482208252e-01 2.378147989511489868e-01 1.973793208599090576e-01 -1.751466691493988037e-01 -7.647755742073059082e-02 3.096399009227752686e-01 1.453144699335098267e-01 -2.927011549472808838e-01 1.427159607410430908e-01 1.058088056743144989e-02 -1.502676457166671753e-01 -2.599657280370593071e-03 -8.025735616683959961e-02 1.167593523859977722e-02 -1.805394738912582397e-01 -2.841981649398803711e-01 -1.688168644905090332e-01 4.318705201148986816e-02 2.050006091594696045e-01 1.891029775142669678e-01 -2.836641371250152588e-01 -1.228987574577331543e-01 2.802714705467224121e-02 2.190857827663421631e-01 -1.637447327375411987e-01 3.057415187358856201e-01 -3.401845693588256836e-02 -5.431482940912246704e-02 1.964546144008636475e-01
1.589685678482055664e-02 -8.331148326396942139e-02 -1.096929237246513367e-01 -6.484386324882507324e-02 2.914683520793914795e-01 -3.216422498226165771e-01 -2.209861874580383301e-01 5.621389672160148621e-02 2.424692064523696899e-01 1.079381108283996582e-01 6.563122570514678955e-02 -3.230026662349700928e-01 9.993345290422439575e-02 -2.337192893028259277e-01 -2.041941732168197632e-01 2.280151546001434326e-01 -2.204004377126693726e-01 2.350185215473175049e-01 -6.503531336784362793e-02 -6.687074154615402222e-02 -8.457195758819580078e-02 8.125110529363155365e-03 1.382960677146911621e-01 -2.482824176549911499e-01 -2.475026994943618774e-01 -3.204545676708221436e-01 -1.438987404108047485e-01 7.437866926193237305e-02 1.262753363698720932e-02 -2.103180140256881714e-01
-9.514574706554412842e-02 2.607481777667999268e-01 -9.023076295852661133e-02 1.460628807544708252e-01 -1.040397435426712036e-01 -1.571259349584579468e-01 -1.143947839736938477e-01 -1.117531806230545044e-01 -3.514272570610046387e-01 -6.641405820846557617e-02 2.300200462341308594e-01 8.405539393424987793e-02 1.072948276996612549e-01 6.736909598112106323e-02 2.622541226446628571e-02 1.595869362354278564e-01 -5.074064061045646667e-02 2.702577412128448486e-01 2.838934361934661865e-01 2.979248166084289551e-01 8.546885848045349121e-02 -1.975647509098052979e-01 2.353642880916595459e-01 -1.795947551727294922e-02 2.233419120311737061e-01 -9.224911034107208252e-02 -9.294173121452331543e-02 5.923926830291748047e-03 2.331051677465438843e-01 -7.405728101730346680e-03
-2.623994648456573486e-01 5.302160978317260742e-02 1.907647103071212769e-01 -1.912830173969268799e-01 -2.186054885387420654e-01 -2.987211942672729492e-01 8.018285036087036133e-03 1.074682921171188354e-02 -5.381841957569122314e-02 1.595492362976074219e-01 -2.312471419572830200e-01 -7.800891995429992676e-02 -1.502681374549865723e-01 -2.316858768463134766e-01 2.645974755287170410e-01 1.407498568296432495e-01 2.885245680809020996e-01 -2.223899066448211670e-01 -2.856773436069488525e-01 -1.825639903545379639e-01 1.430593132972717285e-01 1.582787632942199707e-01 7.350140810012817383e-02 -1.204669326543807983e-01 2.242864668369293213e-01 -1.221498996019363403e-01 2.120180577039718628e-01 7.649889588356018066e-02 -8.100894279778003693e-03 2.028456330299377441e-02
9.610354900360107422e-03 2.254383862018585205e-01 -1.746960133314132690e-01 -2.870927751064300537e-01 -2.814986705780029297e-01 3.105409443378448486e-01 1.525008976459503174e-01 4.947033897042274475e-02 4.277677461504936218e-02 -2.341605871915817261e-01 -4.172078333795070648e-04 1.877839267253875732e-01 1.630298942327499390e-01 1.943281441926956177e-01 -2.689213752746582031e-01 -9.375007823109626770e-03 -2.222074121236801147e-01 4.125648736953735352e-02 8.822271227836608887e-02 2.069715261459350586e-01 2.525758445262908936e-01 2.518031978979706764e-04 -9.780615568161010742e-02 1.559856534004211426e-01 -1.742338985204696655e-01 1.629691123962402344e-01 7.645125687122344971e-02 3.056401312351226807e-01 -2.866018712520599365e-01 1.417614817619323730e-01
1.673671901226043701e-01 -1.043880581855773926e-01 3.003359436988830566e-01 -9.207691252231597900e-02 -1.032438576221466064e-01 3.054526150226593018e-01 -1.252207458019256592e-01 -1.835777610540390015e-01 1.532769054174423218e-01 8.430352807044982910e-02 4.362828657031059265e-02 -2.449486553668975830e-01 -2.100921869277954102e-01 2.500408589839935303e-01 9.639947861433029175e-02 -2.844582498073577881e-01 1.792449206113815308e-01 -3.180444240570068359e-01 -4.811647534370422363e-02 -2.247045338153839111e-01 3.022902905941009521e-01 1.173765212297439575e-01 -1.973938941955566406e-02 -1.592495888471603394e-01 9.634402394294738770e-02 -9.285880625247955322e-02 -2.446765601634979248e-01 4.113295674324035645e-02 -1.036592852324247360e-02 2.612433135509490967e-01
2.987141311168670654e-01 -1.208413243293762207e-01 7.562275230884552002e-02 2.780275046825408936e-01 3.102913796901702881e-01 -3.099258840084075928e-01 3.225054442882537842e-01 1.083487346768379211e-01 1.118577718734741211e-01 1.013593077659606934e-01 3.107574582099914551e-02 -2.793772518634796143e-01 -2.163673788309097290e-01 -1.657469421625137329e-01 -7.065565884113311768e-02 1.531413495540618896e-01 6.703018397092819214e-02 2.990886270999908447e-01 -2.557339370250701904e-01 -6.047604605555534363e-02 2.914691865444183350e-01 -1.044233068823814392e-01 8.489242196083068848e-02 2.292904257774353027e-02 -1.501471251249313354e-01 1.125031113624572754e-01 -2.746720612049102783e-01 2.694765627384185791e-01 -2.807493209838867188e-01 6.949296593666076660e-02
2.065834403038024902e-02 -2.114968746900558472e-01 -3.029769659042358398e-01 2.145294845104217529e-01 -1.185060292482376099e-01 -1.878258585929870605e-02 2.074482142925262451e-01 -4.893220216035842896e-02 -3.602398633956909180e-01 3.217674195766448975e-01 -2.847163677215576172e-01 -1.641565561294555664e-02 1.614524573087692261e-01 -3.003557920455932617e-01 1.737286299467086792e-01 -2.168177962303161621e-01 -1.925030946731567383e-01 2.085491120815277100e-01 -7.648970186710357666e-02 -2.974223494529724121e-01 2.160528302192687988e-02 6.457603070884943008e-03 1.127976775169372559e-01 2.961160242557525635e-01 -2.447676360607147217e-01 -7.046157121658325195e-02 -2.872805297374725342e-01 -1.991936117410659790e-01 -2.653444409370422363e-01 2.321375906467437744e-01
1.978040635585784912e-01 -1.843657791614532471e-01 -1.748896092176437378e-01 -2.417069375514984131e-01 1.611778140068054199e-02 5.803066492080688477e-02 2.339300513267517090e-02 1.340053677558898926e-01 -2.256903648376464844e-01 2.241341173648834229e-01 3.079690337181091309e-01 -1.298643350601196289e-01 3.090989291667938232e-01 2.731220722198486328e-01 2.932528257369995117e-01 2.333299517631530762e-01 1.824255883693695068e-01 2.526062428951263428e-01 -6.274080276489257812e-02 3.128690719604492188e-01 1.357902288436889648e-01 2.318850755691528320e-01 7.573506236076354980e-02 1.599692702293395996e-01 2.642380893230438232e-01 2.718215882778167725e-01 -6.950662285089492798e-02 -2.247772514820098877e-01 2.073129713535308838e-01 -2.927396297454833984e-01
-1.426232904195785522e-01 -2.514030039310455322e-01 -2.799265980720520020e-01 -1.450813412666320801e-01 1.146774291992187500e-01 1.864629685878753662e-01 8.708816766738891602e-02 1.197338253259658813e-01 -1.641593426465988159e-01 -2.531195580959320068e-01 -9.958655387163162231e-02 -3.071508407592773438e-01 2.110415846109390259e-01 1.549095511436462402e-01 -2.332492545247077942e-02 3.362166285514831543e-01 2.343953102827072144e-01 -9.723830223083496094e-02 -1.344531625509262085e-01 1.964696794748306274e-01 8.975431323051452637e-02 2.608347535133361816e-01 1.804344356060028076e-01 -1.820034086704254150e-01 2.215223014354705811e-01 -2.523849308490753174e-01 3.015704452991485596e-01 3.184550702571868896e-01 3.029050529003143311e-01 1.925632059574127197e-01
3.143890202045440674e-01 -1.153550446033477783e-01 7.495171576738357544e-02 2.128839790821075439e-01 -2.170052826404571533e-01 -6.706097722053527832e-02 -8.975346386432647705e-02 -1.771647930145263672e-01 -2.815749943256378174e-01 1.356970071792602539e-01 -2.663011848926544189e-01 -2.930392026901245117e-01 -6.678360700607299805e-02 -1.918986439704895020e-01 -2.247405052185058594e-02 4.785966128110885620e-03 -2.105522900819778442e-01 2.365410625934600830e-01 2.596507370471954346e-01 2.471318691968917847e-01 -1.975090205669403076e-01 1.002274751663208008e-01 -1.303780376911163330e-01 -1.937975287437438965e-01 -3.770419955253601074e-02 3.016676604747772217e-01 -1.398205757141113281e-01 -1.964645981788635254e-01 -7.050199806690216064e-02 1.359000504016876221e-01
1.902749240398406982e-01 1.920215189456939697e-01 -2.021370828151702881e-01 -2.346163541078567505e-01 -1.201164424419403076e-01 1.258942782878875732e-01 1.720771491527557373e-01 2.045928835868835449e-01 -3.438570499420166016e-01 8.915513753890991211e-02 -2.317959666252136230e-01 9.844270348548889160e-02 5.922686308622360229e-02 1.800393611192703247e-01 1.550469398498535156e-01 -2.514303028583526611e-01 -2.134403213858604431e-02 -1.347820758819580078e-01 -1.009299159049987793e-01 2.246176749467849731e-01 -7.947117090225219727e-03 1.777674853801727295e-01 -1.761737614870071411e-01 -1.793238967657089233e-01 -1.597051173448562622e-01 2.438077628612518311e-01 -8.435904234647750854e-02 -1.895876675844192505e-01 -2.133776545524597168e-01 3.579565882682800293e-02
-1.807913631200790405e-01 2.971985936164855957e-02 -2.783451080322265625e-01 1.133621335029602051e-01 -1.219108849763870239e-01 -1.556719988584518433e-01 -2.355348467826843262e-01 -3.117469549179077148e-01 6.978546082973480225e-02 -6.278172135353088379e-02 2.079187929630279541e-01 -1.061545014381408691e-01 -6.979616358876228333e-03 8.840631693601608276e-02 -1.266623288393020630e-01 -2.699363231658935547e-01 -1.469386368989944458e-01 2.324673533439636230e-02 1.404791474342346191e-01 -2.314572185277938843e-01 -2.066738307476043701e-01 -2.382091432809829712e-01 2.958813309669494629e-02 -3.066806197166442871e-01 2.692869603633880615e-01 -1.940262615680694580e-01 -9.666778147220611572e-02 -1.134352982044219971e-01 -6.411408632993698120e-02 1.249431967735290527e-01
3.182261884212493896e-01 1.379240155220031738e-01 2.698996663093566895e-01 -2.729252874851226807e-01 -1.252868920564651489e-01 -1.505430191755294800e-01 -1.013739258050918579e-01 2.167392075061798096e-01 3.095171414315700531e-03 2.516925334930419922e-03 -5.519152618944644928e-03 1.467083990573883057e-01 -2.272672951221466064e-01 -8.600562065839767456e-02 -3.131608963012695312e-01 -1.722006946802139282e-01 1.029941886663436890e-01 -8.401554822921752930e-02 2.397562563419342041e-01 -1.207997202873229980e-01 2.925433218479156494e-01 -1.466512531042098999e-01 -3.024342358112335205e-01 1.596263647079467773e-01 -1.684751063585281372e-01 -1.180747151374816895e-01 1.717397123575210571e-01 -2.715059518814086914e-01 -3.014969229698181152e-01 -1.112065166234970093e-01
6.083557009696960449e-02 -3.125073015689849854e-01 -1.693017631769180298e-01 -2.515981793403625488e-01 1.675547659397125244e-01 -1.254976689815521240e-01 2.529453337192535400e-01 -1.337800025939941406e-01 1.098903045058250427e-01 -1.738471388816833496e-01 -9.430257230997085571e-02 8.861422538757324219e-03 -3.311448693275451660e-01 -2.842640280723571777e-01 1.564206480979919434e-01 8.888173848390579224e-03 -3.214910030364990234e-01 -2.611826956272125244e-01 -3.106959462165832520e-01 -1.413747519254684448e-01 -6.742289662361145020e-02 3.020202517509460449e-01 5.071592330932617188e-02 2.983123958110809326e-01 -1.561445444822311401e-01 2.702319622039794922e-02 2.719126641750335693e-01 6.097659468650817871e-02 -2.835884988307952881e-01 7.610371708869934082e-02
-3.184370398521423340e-01 7.054299116134643555e-03 3.171517550945281982e-01 2.874427735805511475e-01 -2.453013062477111816e-01 1.816901862621307373e-01 1.343549191951751709e-01 -9.582785516977310181e-02 -1.884609758853912354e-01 3.149401247501373291e-01 2.281412035226821899e-01 -2.944608926773071289e-01 1.831631809473037720e-01 3.090710937976837158e-01 -3.020111620426177979e-01 -3.266329690814018250e-02 -1.183196436613798141e-02 -2.962207496166229248e-01 2.181889116764068604e-01 2.630681097507476807e-01 -2.532390654087066650e-01 6.016681343317031860e-02 2.965121567249298096e-01 -2.311875969171524048e-01 2.661789953708648682e-01 1.319909989833831787e-01 -3.089909553527832031e-01 -2.079319059848785400e-01 3.707544179633259773e-03 -3.072299659252166748e-01
8.289995789527893066e-02 2.687211334705352783e-01 -2.179138809442520142e-01 2.202217876911163330e-01 1.371440589427947998e-01 -1.754133105278015137e-01 6.602242588996887207e-02 4.483884200453758240e-02 1.806651242077350616e-02 2.546187937259674072e-01 -4.133390262722969055e-02 -4.592195153236389160e-02 -1.753126233816146851e-01 1.779283583164215088e-01 1.957639455795288086e-01 -5.927501618862152100e-02 -1.733974069356918335e-01 -1.257447451353073120e-01 1.682257354259490967e-01 -2.730925679206848145e-01 -2.666234076023101807e-01 -6.590961664915084839e-02 -1.964672952890396118e-01 -3.128671646118164062e-01 8.662056922912597656e-02 8.512502908706665039e-02 1.144061088562011719e-01 4.671028256416320801e-02 1.933667808771133423e-01 2.476257979869842529e-01
-2.258471250534057617e-01 1.786788403987884521e-01 -1.809465885162353516e-01 3.116209208965301514e-01 -1.180481016635894775e-01 1.383135616779327393e-01 4.294279217720031738e-02 -2.403433024883270264e-01 -2.160185277462005615e-01 -3.023556470870971680e-01 5.535759031772613525e-02 3.191559612751007080e-01 4.857255890965461731e-02 -2.534508407115936279e-01 6.242939084768295288e-02 -2.473482862114906311e-02 -2.480856478214263916e-01 -3.718516230583190918e-02 4.515808820724487305e-02 -1.548923924565315247e-02 -2.010210156440734863e-01 -1.200244650244712830e-01 2.799976170063018799e-01 -1.101989895105361938e-01 6.972759962081909180e-03 -2.249490618705749512e-01 3.334547579288482666e-01 -1.186874955892562866e-01 2.252102345228195190e-01 -2.094000577926635742e-01
-1.134857535362243652e-02 -1.390669792890548706e-01 3.014690279960632324e-01 2.197344601154327393e-01 2.057539522647857666e-01 1.276133656501770020e-01 2.582919895648956299e-01 -2.411182969808578491e-02 1.252447366714477539e-01 -6.590917706489562988e-02 3.227871283888816833e-02 3.218075931072235107e-01 1.735519021749496460e-01 -7.146892696619033813e-02 6.757739186286926270e-02 -5.724146217107772827e-02 6.077720224857330322e-02 2.722589075565338135e-01 1.668166518211364746e-01 -1.137981414794921875e-01 -1.289967447519302368e-01 -4.689556732773780823e-02 3.014220297336578369e-01 -1.660111099481582642e-01 2.661485970020294189e-01 1.979913413524627686e-01 3.028310835361480713e-01 2.094853818416595459e-01 1.481661498546600342e-01 -6.296882033348083496e-02
1.776125133037567139e-01 -2.110575884580612183e-01 -1.551850140094757080e-01 2.367229759693145752e-01 -2.372340559959411621e-01 -1.573624014854431152e-01 2.726406157016754150e-01 -8.176689594984054565e-02 -1.344232857227325439e-01 1.044354140758514404e-01 -2.935897409915924072e-01 -5.690172314643859863e-02 -3.843615204095840454e-02 1.687160283327102661e-01 5.303524062037467957e-02 -2.779470086097717285e-01 7.912391424179077148e-02 2.332717478275299072e-01 -1.847665458917617798e-01 -1.402109116315841675e-01 2.951019108295440674e-01 -1.190162897109985352e-01 1.650631427764892578e-01 2.032763659954071045e-01 -1.328131258487701416e-01 -1.246226578950881958e-01 9.589792042970657349e-02 -2.366346567869186401e-01 2.574762105941772461e-01 -7.890273630619049072e-02
-1.976838409900665283e-01 8.017751574516296387e-02 1.437664031982421875e-01 -2.796499133110046387e-01 -2.175778448581695557e-01 2.740436792373657227e-02 1.924185454845428467e-01 3.093343377113342285e-01 5.250746384263038635e-02 1.145187020301818848e-01 2.790336906909942627e-01 -3.118005394935607910e-01 2.532779872417449951e-01 1.383900195360183716e-01 -3.131932914257049561e-01 2.718864083290100098e-01 -2.801944613456726074e-01 4.553899168968200684e-02 -1.644150018692016602e-01 -5.908578634262084961e-02 1.400482058525085449e-01 1.689690947532653809e-01 -1.858349442481994629e-01 1.766253411769866943e-01 2.559710443019866943e-01 -8.461944758892059326e-02 -1.730959862470626831e-01 7.410499453544616699e-02 2.963988482952117920e-01 -1.085344254970550537e-01
2.381792366504669189e-01 -2.745971381664276123e-01 -2.283402681350708008e-01 -2.066312730312347412e-01 3.098420202732086182e-01 2.639877796173095703e-02 -3.221801817417144775e-01 -3.004937171936035156e-01 8.477121591567993164e-02 -5.306205153465270996e-02 3.380513191223144531e-01 2.893306910991668701e-01 -2.464612573385238647e-01 2.191247791051864624e-01 -1.027085557579994202e-01 -1.019510775804519653e-01 -2.016906440258026123e-01 -1.405540108680725098e-01 7.550060749053955078e-03 -3.245474770665168762e-02 2.343434393405914307e-01 1.356667727231979370e-01 -3.165224194526672363e-01 5.099797248840332031e-02 3.595787286758422852e-02 -2.264495491981506348e-01 2.884199321269989014e-01 2.931403815746307373e-01 2.203191071748733521e-01 1.894203722476959229e-01
-1.529736816883087158e-01 9.134656190872192383e-02 -1.829509139060974121e-01 -1.643370985984802246e-01 -2.832291126251220703e-01 -4.542064666748046875e-02 1.974562704563140869e-01 -5.934260785579681396e-02 -1.596508324146270752e-01 2.141313850879669189e-01 -2.517980933189392090e-01 -1.384399533271789551e-01 3.172713220119476318e-01 -2.202506363391876221e-01 -3.111261688172817230e-02 -1.519292294979095459e-01 3.112186491489410400e-01 3.053671121597290039e-02 2.089814245700836182e-01 -3.057038970291614532e-02 -2.098529636859893799e-01 2.804610431194305420e-01 -2.241821885108947754e-01 2.740558683872222900e-01 1.964867413043975830e-01 1.003172695636749268e-01 -2.187212556600570679e-01 -4.547315835952758789e-02 2.540127635002136230e-01 6.060531735420227051e-02
2.774048745632171631e-01 3.030670583248138428e-01 2.838617861270904541e-01 -3.161616325378417969e-01 -2.128205448389053345e-01 1.849255263805389404e-01 2.768013775348663330e-01 -2.917411327362060547e-01 2.221390008926391602e-01 6.001830101013183594e-03 -1.454797834157943726e-01 2.057261765003204346e-01 2.271653711795806885e-01 8.090110123157501221e-02 3.158091753721237183e-02 7.160929590463638306e-02 -2.238179445266723633e-01 -6.322866678237915039e-02 -1.463913917541503906e-01 -3.634415194392204285e-02 2.750314772129058838e-01 -1.216212287545204163e-01 2.157884836196899414e-02 -3.017305433750152588e-01 1.702426373958587646e-01 -2.546820938587188721e-01 -6.667353957891464233e-02 7.522225379943847656e-03 -1.312190741300582886e-01 -2.302978038787841797e-01
-2.562022209167480469e-01 -9.439209103584289551e-02 4.231623187661170959e-02 -1.950032413005828857e-01 1.739005148410797119e-01 1.324795782566070557e-01 2.800843417644500732e-01 -2.846819460391998291e-01 2.162067145109176636e-01 -1.531213521957397461e-03 1.153348311781883240e-01 1.250973045825958252e-01 -1.884101629257202148e-01 -4.845613241195678711e-02 4.347427934408187866e-02 -2.076257616281509399e-01 1.010377183556556702e-01 2.099921405315399170e-01 1.450269520282745361e-01 1.616511121392250061e-02 -3.208600580692291260e-01 5.655391514301300049e-02 7.913541793823242188e-02 -2.408540397882461548e-01 -5.287849903106689453e-02 7.841813564300537109e-02 1.977950781583786011e-01 2.491735517978668213e-01 -1.815633382648229599e-03 2.251479923725128174e-01
