2.345665097236633301e-01 -4.225414693355560303e-01 -2.971196174621582031e-01 -1.845668554306030273e-01 -1.665501892566680908e-01 3.196713626384735107e-01 -4.509218335151672363e-01 5.304883122444152832e-01 2.084312140941619873e-01 2.247388362884521484e-01 4.175810515880584717e-01 -2.564762830734252930e-01 -1.923172548413276672e-02 4.863406121730804443e-01 -4.174036979675292969e-01 3.592465817928314209e-01 -3.636121153831481934e-01 -1.038592960685491562e-02 -4.437741637229919434e-01 -4.059357345104217529e-01 -2.187983691692352295e-01 -4.222040772438049316e-01 -4.315064549446105957e-01 2.528247535228729248e-01 4.764877557754516602e-01 -3.883185088634490967e-01 3.588833287358283997e-02 2.106706351041793823e-01 -4.936265945434570312e-01 2.578016519546508789e-01
5.207341313362121582e-01 -4.066130518913269043e-01 -3.533186018466949463e-01 1.410942804068326950e-02 -6.097567081451416016e-01 3.609794080257415771e-01 -8.864346891641616821e-02 4.617772251367568970e-02 1.752844303846359253e-01 5.308794379234313965e-01 2.719840407371520996e-01 -5.178263783454895020e-01 -4.059573411941528320e-01 2.956476509571075439e-01 -6.443839520215988159e-02 2.506788074970245361e-01 -5.267892479896545410e-01 4.533912241458892822e-01 -1.218523085117340088e-01 -5.239494442939758301e-01 -3.473544418811798096e-01 -4.488618373870849609e-01 -2.633818089962005615e-01 5.445051193237304688e-01 1.798208802938461304e-01 -2.891855239868164062e-01 1.409365534782409668e-01 2.899823188781738281e-01 -3.164810836315155029e-01 6.403658986091613770e-01
7.003669440746307373e-02 -5.118238329887390137e-01 -1.003739386796951294e-01 -5.831151604652404785e-01 -2.743183970451354980e-01 3.627387285232543945e-01 -5.235186815261840820e-01 2.395935915410518646e-02 2.660262584686279297e-01 4.377625882625579834e-02 3.890681862831115723e-01 -6.658200174570083618e-02 -4.028234779834747314e-01 1.095584593713283539e-02 -5.161386728286743164e-01 2.789703905582427979e-01 -4.930386543273925781e-01 5.553378909826278687e-02 -3.102586865425109863e-01 -1.285503059625625610e-01 -3.698535561561584473e-01 -3.203991949558258057e-01 -3.585665822029113770e-01 3.292562440037727356e-02 4.511986374855041504e-01 -2.977356016635894775e-01 4.856523871421813965e-02 3.182748556137084961e-01 -4.191803932189941406e-01 8.376123756170272827e-02
-5.341531634330749512e-01 5.207245945930480957e-01 2.273843735456466675e-01 2.219119817018508911e-01 2.105346173048019409e-01 -1.422945708036422729e-01 4.610007405281066895e-01 -3.874225914478302002e-01 -5.819024443626403809e-01 -6.209599971771240234e-01 -3.825003802776336670e-01 4.280475378036499023e-01 3.170377016067504883e-01 6.349546462297439575e-02 5.738780498504638672e-01 -3.402346670627593994e-01 5.187029838562011719e-01 -3.699705302715301514e-01 5.276467800140380859e-01 -1.558941905386745930e-03 6.800883263349533081e-02 4.218090176582336426e-01 5.316988825798034668e-01 -4.919799268245697021e-01 -4.101852327585220337e-02 2.096424549818038940e-01 -5.171487331390380859e-01 -1.014254707843065262e-02 1.653241813182830811e-01 -1.436031013727188110e-01
-3.741475343704223633e-01 2.271180897951126099e-01 9.518400579690933228e-02 4.063440263271331787e-01 1.423587799072265625e-01 -2.923022210597991943e-01 4.460156708955764771e-02 -1.194613520056009293e-02 -3.161518573760986328e-01 -3.069692477583885193e-02 -2.980521619319915771e-01 4.381249547004699707e-01 4.225862324237823486e-01 -5.361827015876770020e-01 4.323828518390655518e-01 -3.386109769344329834e-01 9.535506367683410645e-03 -4.157615303993225098e-01 2.361557483673095703e-01 -3.362178103998303413e-03 3.216378390789031982e-01 5.312325358390808105e-01 3.243919312953948975e-01 -5.702414512634277344e-01 -4.901854395866394043e-01 2.542742788791656494e-01 -4.925265610218048096e-01 -4.136545658111572266e-01 1.246340423822402954e-01 -4.550855755805969238e-01
-4.220613539218902588e-01 4.725878834724426270e-01 1.241493970155715942e-01 1.765898764133453369e-01 4.699538350105285645e-01 -3.396358191967010498e-01 5.590946078300476074e-01 5.333992652595043182e-03 -3.134861588478088379e-01 -2.596691846847534180e-01 -3.581327199935913086e-01 2.247392944991588593e-02 3.312948048114776611e-01 -4.654513299465179443e-01 5.954308509826660156e-01 -4.774400293827056885e-01 2.944608032703399658e-01 -1.764580458402633667e-01 3.077932596206665039e-01 1.560191214084625244e-01 1.046060398221015930e-01 1.173405423760414124e-01 2.121107578277587891e-01 -6.365334987640380859e-02 -4.366574883460998535e-01 5.745207145810127258e-02 -5.658506155014038086e-01 -3.125673532485961914e-01 8.566959202289581299e-02 -3.707029223442077637e-01
4.941323399543762207e-02 -8.693359792232513428e-02 -4.425383806228637695e-01 -1.849765926599502563e-01 -4.041764736175537109e-01 1.080408766865730286e-01 -3.308541774749755859e-01 4.540750086307525635e-01 4.598831534385681152e-01 3.995819985866546631e-01 5.740295648574829102e-01 -4.112326502799987793e-01 -5.746606364846229553e-02 4.515717923641204834e-02 -2.657234668731689453e-02 6.082949042320251465e-02 -3.286491036415100098e-01 7.251900434494018555e-02 -4.467658996582031250e-01 -5.844042897224426270e-01 -9.211438708007335663e-03 -3.478440940380096436e-01 3.902389481663703918e-02 2.785335183143615723e-01 1.055721938610076904e-02 -4.884026348590850830e-01 4.119002521038055420e-01 -1.285355351865291595e-02 -5.892779678106307983e-02 4.293266534805297852e-01
7.884206622838973999e-02 -4.123232066631317139e-01 -5.101950168609619141e-01 3.995075076818466187e-02 -3.163007795810699463e-01 -2.708500437438488007e-02 3.520381823182106018e-02 2.786234915256500244e-01 2.787596285343170166e-01 5.465191006660461426e-01 5.151131749153137207e-01 -4.649251997470855713e-01 -5.484897494316101074e-01 1.882002130150794983e-02 -3.988624215126037598e-01 6.782700121402740479e-02 1.216316223144531250e-02 4.117339476943016052e-02 -1.840580254793167114e-01 -3.559320867061614990e-01 -4.401940703392028809e-01 -4.764027893543243408e-01 -2.724386751651763916e-01 4.330366253852844238e-01 1.985238492488861084e-01 -4.585447609424591064e-01 2.355480492115020752e-01 6.076988577842712402e-01 -1.505833119153976440e-01 1.805327236652374268e-01
-7.171091437339782715e-02 3.984720706939697266e-01 4.208000004291534424e-01 -2.025657892227172852e-02 6.086545810103416443e-02 -6.000293418765068054e-02 3.246838450431823730e-01 -2.759197652339935303e-01 -3.883773386478424072e-01 -4.094134569168090820e-01 -2.680715322494506836e-01 3.983558714389801025e-02 2.723064720630645752e-01 -3.486208319664001465e-01 2.982396781444549561e-01 -4.623619914054870605e-01 4.127586781978607178e-01 -3.174961507320404053e-01 2.095370292663574219e-01 4.184418618679046631e-01 4.418506622314453125e-01 3.076642155647277832e-01 1.519399434328079224e-01 -7.653880119323730469e-02 3.371606767177581787e-02 1.824836879968643188e-01 2.490514516830444336e-02 -2.955989539623260498e-01 5.140734910964965820e-01 -5.022862553596496582e-01
1.473270170390605927e-02 -1.574623733758926392e-01 -1.519171446561813354e-01 -1.929129511117935181e-01 -2.264677137136459351e-01 4.592158794403076172e-01 -3.849450051784515381e-01 1.727117598056793213e-01 4.514736533164978027e-01 1.498602777719497681e-01 1.923687569797039032e-02 4.331022500991821289e-02 -1.571582704782485962e-01 8.464575558900833130e-02 -2.547793276607990265e-02 5.596866607666015625e-01 -4.169868230819702148e-01 5.197610855102539062e-01 -8.720566332340240479e-02 4.091328382492065430e-02 -1.488722860813140869e-01 -3.200037181377410889e-01 -1.323778033256530762e-01 -1.379755605012178421e-02 5.293701291084289551e-01 -3.629499971866607666e-01 4.668537676334381104e-01 2.824051380157470703e-01 -8.658125251531600952e-02 5.517311394214630127e-02
9.837435558438301086e-03 -2.405028492212295532e-01 -3.910673260688781738e-01 -5.249603986740112305e-01 -4.793585538864135742e-01 5.328567028045654297e-01 -3.507716059684753418e-01 4.226775765419006348e-01 1.539344638586044312e-01 1.656606979668140411e-02 1.829999834299087524e-01 -2.477742582559585571e-01 -2.252913266420364380e-01 4.793539047241210938e-01 -5.082259774208068848e-01 1.259144991636276245e-01 -2.670460343360900879e-01 5.930248498916625977e-01 -1.394342035055160522e-01 -1.467234492301940918e-01 -2.225549966096878052e-01 -2.911055982112884521e-01 -5.651292800903320312e-01 5.259953737258911133e-01 3.843187987804412842e-01 -1.385054886341094971e-01 1.086092963814735413e-01 5.919942855834960938e-01 -3.333741128444671631e-01 3.213484883308410645e-01
-3.508233726024627686e-01 3.744087815284729004e-01 3.682244569063186646e-02 9.789944440126419067e-02 6.059806346893310547e-01 -3.468339443206787109e-01 1.195715516805648804e-01 -8.836039155721664429e-02 -2.953339517116546631e-01 -2.219868302345275879e-01 -1.556215286254882812e-01 3.706147670745849609e-01 9.030480682849884033e-02 -3.493981957435607910e-01 3.161943256855010986e-01 -4.764012098312377930e-01 2.883691787719726562e-01 -5.135779976844787598e-01 7.283943146467208862e-02 5.282118916511535645e-02 5.556396842002868652e-01 2.030019462108612061e-01 -4.776852205395698547e-02 -1.481101959943771362e-01 -7.380578666925430298e-03 2.970347702503204346e-01 -1.246563196182250977e-01 -2.113538607954978943e-02 9.252371639013290405e-02 -2.454233765602111816e-01
-2.455366402864456177e-01 4.619204401969909668e-01 -3.879347443580627441e-02 4.256067574024200439e-01 1.362853050231933594e-01 -4.448390305042266846e-01 2.458156794309616089e-01 -1.600110530853271484e-01 -9.215193986892700195e-02 -1.199105009436607361e-01 -2.720720171928405762e-01 6.348472833633422852e-02 3.042997419834136963e-01 -5.294858217239379883e-01 2.124251127243041992e-01 -2.475875169038772583e-01 4.977729618549346924e-01 -4.684141278266906738e-01 3.997165560722351074e-01 -1.827761158347129822e-02 1.287434697151184082e-01 3.014362752437591553e-01 5.517258644104003906e-01 -2.483223825693130493e-01 -4.943504035472869873e-01 1.952646970748901367e-01 -2.742134034633636475e-01 -1.399288922548294067e-01 4.193026721477508545e-01 -1.035644337534904480e-01
5.418425202369689941e-01 -5.904994010925292969e-01 -1.602845489978790283e-01 -3.852392137050628662e-01 -9.936774522066116333e-02 1.427394747734069824e-01 -2.563352882862091064e-01 3.477523624897003174e-01 2.507726848125457764e-01 2.393853478133678436e-02 1.616692692041397095e-01 -1.833951175212860107e-01 -4.711993634700775146e-01 5.331529378890991211e-01 -2.420835942029953003e-01 3.738760054111480713e-01 -4.986035227775573730e-01 8.753131330013275146e-02 -2.651465833187103271e-01 -1.759179830551147461e-01 -4.070832952857017517e-02 4.499292373657226562e-02 -3.833412528038024902e-01 4.016600251197814941e-01 1.841349303722381592e-01 -1.641254127025604248e-01 1.320342719554901123e-01 4.748050570487976074e-01 -1.243825927376747131e-01 2.454787790775299072e-01
-1.053722873330116272e-01 2.304835617542266846e-01 3.876765966415405273e-01 5.480355024337768555e-01 2.728126943111419678e-01 -4.368042647838592529e-01 3.934316933155059814e-01 -4.505526423454284668e-01 -3.631216883659362793e-01 -1.989701241254806519e-01 -4.572615623474121094e-01 5.177896022796630859e-01 5.837640538811683655e-02 -1.211522892117500305e-01 9.575162827968597412e-02 -3.994805812835693359e-01 2.850590273737907410e-02 -5.842240452766418457e-01 4.058396443724632263e-02 5.260902643203735352e-01 3.402450680732727051e-01 5.106209516525268555e-01 5.789815187454223633e-01 -5.209398865699768066e-01 -1.540683656930923462e-01 1.090507954359054565e-01 -3.805417194962501526e-02 -5.700477957725524902e-01 3.392328619956970215e-01 -1.967571824789047241e-01
2.122951894998550415e-01 -3.931898176670074463e-01 -5.856586098670959473e-01 -3.865367770195007324e-01 -1.204811874777078629e-02 -1.522103673778474331e-03 -5.754328370094299316e-01 5.681445002555847168e-01 4.504558145999908447e-01 4.654363989830017090e-01 1.349930018186569214e-01 -2.574686408042907715e-01 -1.523686200380325317e-01 2.749910950660705566e-01 -3.435826301574707031e-01 4.227086603641510010e-01 -5.114648342132568359e-01 5.162104368209838867e-01 -5.840638279914855957e-01 -4.289794862270355225e-01 -2.710568308830261230e-01 -5.329759120941162109e-01 -1.992255300283432007e-01 4.921288192272186279e-01 4.044700264930725098e-01 -4.881357550621032715e-01 3.538794443011283875e-02 3.203396797180175781e-01 -4.776543080806732178e-01 5.464620590209960938e-01
7.250790949910879135e-03 3.389023244380950928e-01 5.436912775039672852e-01 2.295208275318145752e-01 4.928695559501647949e-01 -1.733397543430328369e-01 3.963800966739654541e-01 -4.416370093822479248e-01 -2.875105738639831543e-01 -3.750485181808471680e-01 -3.743586540222167969e-01 3.904877305030822754e-01 8.721138536930084229e-02 -2.605817914009094238e-01 1.473294794559478760e-01 -2.236239612102508545e-01 9.449078887701034546e-02 -3.667406141757965088e-01 1.499022096395492554e-01 4.831966459751129150e-01 5.885680913925170898e-01 -5.971244722604751587e-02 4.861232936382293701e-01 -5.113263726234436035e-01 -3.697530627250671387e-01 4.495798647403717041e-01 -5.733112096786499023e-01 -2.840507030487060547e-01 1.809491962194442749e-02 -3.792896866798400879e-01
2.585653364658355713e-01 -4.597946405410766602e-01 -2.576591074466705322e-01 -4.143663644790649414e-01 -1.458842307329177856e-01 1.034343317151069641e-01 -4.127143025398254395e-01 7.374679297208786011e-02 4.000998139381408691e-01 3.062830120325088501e-02 9.441713988780975342e-02 -3.960843086242675781e-01 -2.721405029296875000e-01 4.355313777923583984e-01 -3.553010523319244385e-01 1.601372957229614258e-01 -2.342207729816436768e-01 2.921377420425415039e-01 -1.635326743125915527e-01 -3.273920714855194092e-01 -3.694896996021270752e-01 -4.202190041542053223e-01 -5.618658065795898438e-01 1.558685749769210815e-01 4.727371335029602051e-01 -2.121841758489608765e-01 4.329818189144134521e-01 1.769899874925613403e-01 -5.866681933403015137e-01 2.514083385467529297e-01
-6.725121289491653442e-02 2.380677908658981323e-01 3.852548003196716309e-01 5.745153427124023438e-01 3.559683561325073242e-01 -3.975712656974792480e-01 2.536612749099731445e-01 -3.151108324527740479e-01 -5.914140939712524414e-01 -5.552101731300354004e-01 -3.837630748748779297e-01 4.742498397827148438e-01 5.863809958100318909e-02 -4.069233834743499756e-01 1.868367046117782593e-01 -1.897510141134262085e-01 6.394412368535995483e-02 1.016858592629432678e-02 2.304791212081909180e-01 5.709777474403381348e-01 -1.168335881084203720e-02 4.410759210586547852e-01 -4.000688716769218445e-02 -7.405667006969451904e-02 -1.756820678710937500e-01 1.088236644864082336e-02 -6.219115853309631348e-01 -2.017330676317214966e-01 5.563594102859497070e-01 -3.076196312904357910e-01
5.378403067588806152e-01 3.020758181810379028e-02 -4.262098371982574463e-01 -3.101104497909545898e-02 -8.706202358007431030e-02 3.783961236476898193e-01 -2.964544892311096191e-01 5.140264630317687988e-01 5.825757384300231934e-01 5.400804430246353149e-02 3.360736668109893799e-01 -9.090848267078399658e-02 -5.079951286315917969e-01 2.141719162464141846e-01 -5.379797816276550293e-01 1.346428543329238892e-01 -3.179360330104827881e-01 3.030396699905395508e-01 -1.833141446113586426e-01 -5.350363850593566895e-01 -1.726226359605789185e-01 4.877250757999718189e-04 -5.428302884101867676e-01 5.073603987693786621e-01 3.758966326713562012e-01 -5.297198295593261719e-01 4.580961763858795166e-01 3.408318161964416504e-01 -5.755254030227661133e-01 4.336144924163818359e-01
5.116865634918212891e-01 2.976622432470321655e-02 -1.314251124858856201e-01 -1.148729175329208374e-01 -1.026278827339410782e-02 3.138204514980316162e-01 -1.030589714646339417e-01 4.902466833591461182e-01 7.923853397369384766e-02 4.743836224079132080e-01 5.685372948646545410e-01 -2.843967080116271973e-01 -4.256034791469573975e-01 1.546156108379364014e-01 -4.044696316123008728e-02 2.086163908243179321e-01 -5.412797927856445312e-01 2.226067930459976196e-01 -5.873620510101318359e-01 -1.255208402872085571e-01 -4.637518227100372314e-01 -3.597717881202697754e-01 -1.505276113748550415e-01 1.479319669306278229e-02 3.636810183525085449e-01 -1.778183579444885254e-01 3.775279223918914795e-01 3.184009194374084473e-01 -5.195130705833435059e-01 1.848049163818359375e-01
-2.131334692239761353e-01 1.348755210638046265e-01 -3.865417093038558960e-02 -6.278248038142919540e-03 3.990463614463806152e-01 -4.015221297740936279e-01 4.096137881278991699e-01 -5.371652841567993164e-01 -3.683478534221649170e-01 -3.885364234447479248e-01 -2.826945297420024872e-02 4.932157397270202637e-01 2.668845653533935547e-01 -4.467894434928894043e-01 4.203946888446807861e-02 -1.111998111009597778e-01 4.232119023799896240e-01 -3.303883969783782959e-01 6.923050433397293091e-02 3.179804384708404541e-01 2.747460305690765381e-01 4.355684220790863037e-01 4.713270962238311768e-01 -2.561735212802886963e-01 3.554951772093772888e-02 4.987382292747497559e-01 -4.386719763278961182e-01 -1.933847814798355103e-01 5.794572085142135620e-02 -3.881859481334686279e-01
5.698295235633850098e-01 -7.831612229347229004e-02 -4.858861267566680908e-01 -9.329507499933242798e-02 -5.027300715446472168e-01 3.252903223037719727e-01 -2.393280863761901855e-01 4.141976237297058105e-01 1.279621720314025879e-01 2.514259815216064453e-01 1.048640757799148560e-01 -1.638959497213363647e-01 -5.649898648262023926e-01 2.815609872341156006e-01 -4.529056251049041748e-01 3.063086867332458496e-01 -1.476582288742065430e-01 3.379135951399803162e-02 -3.619460761547088623e-01 -4.562748968601226807e-01 -2.968147695064544678e-01 -1.434703022241592407e-01 -1.706360876560211182e-01 4.974044263362884521e-01 5.014529228210449219e-01 -5.376029610633850098e-01 1.063232421875000000e-01 2.021103650331497192e-01 -1.934765130281448364e-01 6.907386332750320435e-02
-2.139184772968292236e-01 7.043639570474624634e-02 4.098797440528869629e-01 5.374073386192321777e-01 7.020898908376693726e-02 -2.801777124404907227e-01 3.748119249939918518e-02 -9.741462767124176025e-02 -5.487791448831558228e-02 -2.931693494319915771e-01 -2.828934788703918457e-01 2.505786716938018799e-01 3.099088966846466064e-01 -2.143807262182235718e-01 5.448146462440490723e-01 -5.291571021080017090e-01 1.395626962184906006e-01 1.442082226276397705e-02 4.508355557918548584e-01 8.878195285797119141e-02 2.532030642032623291e-02 8.594908565282821655e-02 5.587664842605590820e-01 -4.098191857337951660e-01 -4.101708531379699707e-01 1.784879267215728760e-01 -5.243604779243469238e-01 -5.714882016181945801e-01 1.306531876325607300e-01 -1.213860213756561279e-01
6.072842478752136230e-01 -3.183332979679107666e-01 -3.276126384735107422e-01 -5.830900073051452637e-01 -3.666284978389739990e-01 3.985966444015502930e-01 -4.364493787288665771e-01 5.211079120635986328e-01 9.603594988584518433e-02 3.291637897491455078e-01 4.727766811847686768e-01 -4.418205618858337402e-01 -3.348759710788726807e-01 2.674455642700195312e-01 -1.553977429866790771e-01 3.790102303028106689e-01 -3.792288303375244141e-01 4.828290343284606934e-01 -6.376405954360961914e-01 -5.582759380340576172e-01 -5.675503015518188477e-01 -2.908933162689208984e-01 -1.936014443635940552e-01 5.184769034385681152e-01 3.353317379951477051e-01 -1.126375794410705566e-01 1.640577465295791626e-01 4.614988565444946289e-01 -2.398195415735244751e-01 8.089044690132141113e-02
-4.944011867046356201e-01 1.892064362764358521e-01 1.792014539241790771e-01 1.684561930596828461e-02 3.407030105590820312e-01 4.393071401864290237e-03 5.860375761985778809e-01 -2.137214690446853638e-01 -4.499564766883850098e-01 -2.401969581842422485e-01 -4.331707358360290527e-01 5.038836002349853516e-01 4.416343197226524353e-02 -3.404751718044281006e-01 2.761830948293209076e-02 -2.444810718297958374e-01 4.014197885990142822e-01 -2.851916849613189697e-01 2.259227037429809570e-01 5.380873680114746094e-01 3.554389774799346924e-01 2.099881172180175781e-01 3.596815764904022217e-01 -2.516261301934719086e-02 -2.360693365335464478e-01 2.574086487293243408e-01 -3.943546116352081299e-01 -1.919398605823516846e-01 4.835022985935211182e-01 -6.273300647735595703e-01
3.297238349914550781e-01 -4.736760631203651428e-02 -1.627469211816787720e-01 -4.369466006755828857e-01 -4.226998686790466309e-01 3.473954200744628906e-01 -1.516776531934738159e-01 5.621453523635864258e-01 2.219518870115280151e-01 4.692184627056121826e-01 3.759608268737792969e-01 -2.331224977970123291e-01 -5.154524445533752441e-01 5.522592067718505859e-01 -5.047769546508789062e-01 4.454002380371093750e-01 -1.823579370975494385e-01 2.155563235282897949e-01 -2.141593396663665771e-01 -5.635009407997131348e-01 -3.111008703708648682e-01 -4.102877676486968994e-01 -1.031199023127555847e-01 1.283940523862838745e-01 1.993608921766281128e-01 -4.915212988853454590e-01 1.309821605682373047e-01 1.375029385089874268e-01 -5.047259330749511719e-01 5.635762587189674377e-02
1.811918914318084717e-01 -2.364764064550399780e-01 -5.080364942550659180e-01 -4.895452558994293213e-01 -2.436265796422958374e-01 5.018455386161804199e-01 -4.170178994536399841e-02 3.728839159011840820e-01 1.805646866559982300e-01 4.244725108146667480e-01 -3.519402071833610535e-02 -4.027231335639953613e-01 -7.137703150510787964e-02 -4.476015456020832062e-03 -4.579772651195526123e-01 2.887976467609405518e-01 -1.678830981254577637e-01 5.589883923530578613e-01 -2.811745107173919678e-01 -6.606560200452804565e-02 -4.263893663883209229e-01 2.680483832955360413e-02 -1.467180550098419189e-01 -2.587486617267131805e-02 3.296451568603515625e-01 -2.572562694549560547e-01 3.185993731021881104e-01 3.714091777801513672e-01 -9.341175109148025513e-02 3.598841428756713867e-01
-4.918423593044281006e-01 2.816053330898284912e-01 5.816654562950134277e-01 5.650548338890075684e-01 1.657986640930175781e-01 -5.415408015251159668e-01 2.345584034919738770e-01 4.894472658634185791e-02 -1.447291225194931030e-01 -9.289081394672393799e-02 1.175981387495994568e-02 1.096022725105285645e-01 5.630592107772827148e-01 -5.050356984138488770e-01 1.445059627294540405e-01 -1.259613484144210815e-01 5.806941539049148560e-02 -4.133208394050598145e-01 3.131810128688812256e-01 5.882964655756950378e-02 5.451343655586242676e-01 7.651490718126296997e-02 5.072840303182601929e-02 -1.241346299648284912e-01 -2.137122452259063721e-01 3.404237627983093262e-01 -5.704067647457122803e-02 -2.143553644418716431e-01 2.654292881488800049e-01 -2.872136235237121582e-01
4.020562767982482910e-01 -5.034734010696411133e-01 -1.316685825586318970e-01 -4.077014923095703125e-01 -6.127079725265502930e-01 2.919699549674987793e-01 -5.753316730260848999e-02 2.740589156746864319e-02 8.177208155393600464e-02 4.446525275707244873e-01 4.644304513931274414e-01 -2.730617821216583252e-01 -4.515570998191833496e-01 1.763769090175628662e-01 -2.536736801266670227e-02 9.152146428823471069e-02 -1.610545217990875244e-01 4.765365645289421082e-02 -4.277606010437011719e-01 -2.008721828460693359e-01 -2.967303097248077393e-01 -4.889831840991973877e-01 -1.279518455266952515e-01 4.537232220172882080e-01 3.901512026786804199e-01 -2.987982928752899170e-01 4.564660489559173584e-01 1.869581192731857300e-01 -2.454968541860580444e-01 3.116263449192047119e-01
